double score(double * input) {
    double var0;
    if (input[5] >= 65.233116) {
        if (input[1] >= 1.3160933) {
            if (input[1] >= 1.7302551) {
                if (input[7] >= 4.9465384) {
                    if (input[5] >= 69.6004) {
                        var0 = 0.55830127;
                    } else {
                        var0 = 0.13493551;
                    }
                } else {
                    if (input[3] >= 1.6611092) {
                        var0 = 0.11315313;
                    } else {
                        if (input[7] >= 2.0882587) {
                            var0 = 0.43336564;
                        } else {
                            var0 = 0.12535629;
                        }
                    }
                }
            } else {
                if (input[4] >= 959.25037) {
                    if (input[7] >= 2.1974468) {
                        var0 = 0.06989939;
                    } else {
                        var0 = 0.011893364;
                    }
                } else {
                    if (input[7] >= 1.6942649) {
                        if (input[3] >= 2.4432826) {
                            var0 = 0.07350787;
                        } else {
                            var0 = 0.16149795;
                        }
                    } else {
                        var0 = 0.04739366;
                    }
                }
            }
        } else {
            if (input[0] >= 1.0) {
                if (input[1] >= 1.1821572) {
                    if (input[7] >= 5.3739142) {
                        var0 = 0.05573059;
                    } else {
                        var0 = 0.01576851;
                    }
                } else {
                    var0 = 0.1619993;
                }
            } else {
                if (input[2] >= 2.2568817) {
                    if (input[6] >= 0.38384026) {
                        var0 = 0.7998786;
                    } else {
                        if (input[7] >= 4.7574778) {
                            var0 = 0.60451674;
                        } else {
                            var0 = 0.20777014;
                        }
                    }
                } else {
                    if (input[4] >= 1419.1306) {
                        var0 = 0.39148596;
                    } else {
                        var0 = 0.084820725;
                    }
                }
            }
        }
    } else {
        if (input[1] >= 1.6443114) {
            if (input[7] >= 5.7018385) {
                if (input[0] >= 1.0) {
                    var0 = 0.08074084;
                } else {
                    var0 = 0.32824206;
                }
            } else {
                if (input[3] >= 2.4503844) {
                    if (input[6] >= 0.13141999) {
                        var0 = 0.06660919;
                    } else {
                        var0 = 0.2315592;
                    }
                } else {
                    if (input[6] >= 0.13010229) {
                        if (input[1] >= 1.9422436) {
                            var0 = 0.23979679;
                        } else {
                            var0 = 0.045772027;
                        }
                    } else {
                        if (input[0] >= 1.0) {
                            var0 = -0.0694534;
                        } else {
                            var0 = 0.025530161;
                        }
                    }
                }
            }
        } else {
            if (input[6] >= 0.30053246) {
                if (input[4] >= 311.85983) {
                    if (input[7] >= 3.1267447) {
                        if (input[4] >= 574.85034) {
                            var0 = 0.044400256;
                        } else {
                            var0 = 0.20635153;
                        }
                    } else {
                        if (input[2] >= 2.411531) {
                            var0 = -0.007698505;
                        } else {
                            var0 = 0.10131634;
                        }
                    }
                } else {
                    if (input[6] >= 0.59482944) {
                        var0 = 0.35075095;
                    } else {
                        if (input[4] >= 298.4223) {
                            var0 = 0.027022341;
                        } else {
                            var0 = 0.14930907;
                        }
                    }
                }
            } else {
                if (input[7] >= 2.1506414) {
                    if (input[6] >= 0.14724672) {
                        if (input[1] >= 1.3186762) {
                            var0 = 0.0767145;
                        } else {
                            var0 = -0.0040134657;
                        }
                    } else {
                        if (input[3] >= 1.2081258) {
                            var0 = -0.022773864;
                        } else {
                            var0 = -0.1153373;
                        }
                    }
                } else {
                    if (input[2] >= 1.7116419) {
                        if (input[5] >= 26.643064) {
                            var0 = -0.11260299;
                        } else {
                            var0 = -0.062473774;
                        }
                    } else {
                        if (input[5] >= 33.791206) {
                            var0 = 0.14201902;
                        } else {
                            var0 = -0.018130548;
                        }
                    }
                }
            }
        }
    }
    double var1;
    if (input[5] >= 58.7697) {
        if (input[4] >= 528.1922) {
            if (input[5] >= 103.42308) {
                var1 = 0.1815268;
            } else {
                if (input[7] >= 2.3415165) {
                    var1 = 0.07914374;
                } else {
                    if (input[7] >= 2.0040598) {
                        var1 = 0.0034837394;
                    } else {
                        if (input[7] >= 1.7410455) {
                            var1 = 0.07749834;
                        } else {
                            var1 = 0.011876747;
                        }
                    }
                }
            }
        } else {
            if (input[1] >= 1.1853986) {
                if (input[7] >= 5.0623646) {
                    if (input[3] >= 2.552371) {
                        var1 = 0.35974208;
                    } else {
                        var1 = 0.1390251;
                    }
                } else {
                    if (input[3] >= 1.5090373) {
                        if (input[7] >= 1.879914) {
                            var1 = 0.09336119;
                        } else {
                            var1 = 0.043866098;
                        }
                    } else {
                        var1 = 0.22221638;
                    }
                }
            } else {
                if (input[5] >= 77.529816) {
                    var1 = 0.44055042;
                } else {
                    var1 = 0.12618479;
                }
            }
        }
    } else {
        if (input[1] >= 1.5521021) {
            if (input[4] >= 337.66382) {
                if (input[4] >= 399.29138) {
                    if (input[3] >= 1.7743881) {
                        if (input[7] >= 3.7602777) {
                            var1 = 0.19522071;
                        } else {
                            var1 = 0.089261055;
                        }
                    } else {
                        var1 = 0.00065692305;
                    }
                } else {
                    if (input[4] >= 364.40515) {
                        if (input[2] >= 2.4265118) {
                            var1 = -0.0032946318;
                        } else {
                            var1 = -0.057242278;
                        }
                    } else {
                        if (input[5] >= 33.49128) {
                            var1 = 0.015776558;
                        } else {
                            var1 = 0.06050477;
                        }
                    }
                }
            } else {
                if (input[4] >= 278.42752) {
                    var1 = 0.3416147;
                } else {
                    if (input[1] >= 1.79793) {
                        var1 = -0.06315165;
                    } else {
                        var1 = 0.035453763;
                    }
                }
            }
        } else {
            if (input[6] >= 0.30053246) {
                if (input[4] >= 311.85983) {
                    if (input[7] >= 3.1267447) {
                        if (input[5] >= 36.64046) {
                            var1 = 0.006594326;
                        } else {
                            var1 = 0.114978604;
                        }
                    } else {
                        if (input[3] >= 2.322609) {
                            var1 = -0.020341199;
                        } else {
                            var1 = 0.05091579;
                        }
                    }
                } else {
                    if (input[6] >= 0.59482944) {
                        var1 = 0.20000425;
                    } else {
                        if (input[6] >= 0.37923282) {
                            var1 = 0.034624137;
                        } else {
                            var1 = 0.14310232;
                        }
                    }
                }
            } else {
                if (input[7] >= 4.5917854) {
                    if (input[6] >= 0.100009546) {
                        if (input[2] >= 5.537513) {
                            var1 = -0.015823266;
                        } else {
                            var1 = 0.068276115;
                        }
                    } else {
                        if (input[3] >= 1.97) {
                            var1 = -0.010512754;
                        } else {
                            var1 = -0.046150662;
                        }
                    }
                } else {
                    if (input[2] >= 2.992052) {
                        if (input[2] >= 4.0076833) {
                            var1 = -0.046929587;
                        } else {
                            var1 = -0.09281451;
                        }
                    } else {
                        if (input[5] >= 40.514454) {
                            var1 = 0.13742244;
                        } else {
                            var1 = -0.03188287;
                        }
                    }
                }
            }
        }
    }
    double var2;
    if (input[5] >= 65.233116) {
        if (input[1] >= 1.1740787) {
            if (input[7] >= 2.114867) {
                if (input[3] >= 1.8944983) {
                    if (input[7] >= 4.8887033) {
                        if (input[4] >= 792.4437) {
                            var2 = 0.030604767;
                        } else {
                            var2 = 0.13189232;
                        }
                    } else {
                        if (input[2] >= 7.8620315) {
                            var2 = 0.0069674365;
                        } else {
                            var2 = 0.0649311;
                        }
                    }
                } else {
                    if (input[7] >= 2.414916) {
                        var2 = 0.23887424;
                    } else {
                        var2 = 0.07565127;
                    }
                }
            } else {
                if (input[5] >= 75.88025) {
                    if (input[7] >= 1.4201605) {
                        if (input[7] >= 1.966274) {
                            var2 = 0.03276352;
                        } else {
                            var2 = 0.06846642;
                        }
                    } else {
                        var2 = 0.02130838;
                    }
                } else {
                    var2 = 0.000866391;
                }
            }
        } else {
            var2 = 0.24010237;
        }
    } else {
        if (input[1] >= 1.6443114) {
            if (input[4] >= 263.6107) {
                if (input[4] >= 337.66382) {
                    if (input[3] >= 2.4503844) {
                        if (input[7] >= 3.7602777) {
                            var2 = 0.16651027;
                        } else {
                            var2 = 0.057737015;
                        }
                    } else {
                        if (input[7] >= 5.4711785) {
                            var2 = 0.061761566;
                        } else {
                            var2 = 0.019256335;
                        }
                    }
                } else {
                    var2 = 0.19673286;
                }
            } else {
                var2 = -0.049247663;
            }
        } else {
            if (input[6] >= 0.31022096) {
                if (input[7] >= 2.0867708) {
                    if (input[2] >= 4.66875) {
                        if (input[2] >= 5.4255857) {
                            var2 = 0.042948082;
                        } else {
                            var2 = -0.0016897781;
                        }
                    } else {
                        if (input[2] >= 4.347788) {
                            var2 = 0.17755678;
                        } else {
                            var2 = 0.079815015;
                        }
                    }
                } else {
                    if (input[7] >= 1.520797) {
                        if (input[6] >= 0.40689266) {
                            var2 = 0.013496626;
                        } else {
                            var2 = -0.07309451;
                        }
                    } else {
                        if (input[3] >= 2.1707711) {
                            var2 = 0.01643261;
                        } else {
                            var2 = 0.094726115;
                        }
                    }
                }
            } else {
                if (input[3] >= 5.17) {
                    var2 = 0.17723872;
                } else {
                    if (input[7] >= 2.4092126) {
                        if (input[1] >= 1.3676083) {
                            var2 = 0.024116667;
                        } else {
                            var2 = -0.017024199;
                        }
                    } else {
                        if (input[1] >= 1.2821301) {
                            var2 = -0.028199242;
                        } else {
                            var2 = -0.06460436;
                        }
                    }
                }
            }
        }
    }
    double var3;
    if (input[5] >= 65.233116) {
        if (input[1] >= 1.1740787) {
            if (input[7] >= 2.114867) {
                if (input[3] >= 1.8944983) {
                    if (input[4] >= 792.4437) {
                        if (input[4] >= 808.7894) {
                            var3 = 0.03041971;
                        } else {
                            var3 = 0.014349642;
                        }
                    } else {
                        if (input[2] >= 7.8620315) {
                            var3 = -0.009856513;
                        } else {
                            var3 = 0.07228919;
                        }
                    }
                } else {
                    if (input[7] >= 2.8407893) {
                        var3 = 0.17468607;
                    } else {
                        var3 = 0.07650795;
                    }
                }
            } else {
                if (input[5] >= 75.88025) {
                    if (input[7] >= 1.3035972) {
                        if (input[1] >= 1.3225257) {
                            var3 = 0.03074669;
                        } else {
                            var3 = 0.059864815;
                        }
                    } else {
                        var3 = 0.009887481;
                    }
                } else {
                    var3 = 0.00069333974;
                }
            }
        } else {
            if (input[7] >= 1.5078664) {
                var3 = 0.20050745;
            } else {
                var3 = 0.050407615;
            }
        }
    } else {
        if (input[6] >= 0.06989682) {
            if (input[4] >= 344.41034) {
                if (input[3] >= 1.485) {
                    if (input[5] >= 31.891699) {
                        if (input[2] >= 4.4719515) {
                            var3 = -0.008826087;
                        } else {
                            var3 = 0.04448731;
                        }
                    } else {
                        if (input[6] >= 0.6108439) {
                            var3 = 0.037668772;
                        } else {
                            var3 = -0.008919851;
                        }
                    }
                } else {
                    if (input[1] >= 1.7376637) {
                        var3 = 0.047319587;
                    } else {
                        var3 = -0.061586414;
                    }
                }
            } else {
                if (input[3] >= 1.8073012) {
                    if (input[1] >= 1.3597698) {
                        if (input[6] >= 0.10011162) {
                            var3 = 0.186932;
                        } else {
                            var3 = 0.0012741832;
                        }
                    } else {
                        if (input[4] >= 289.92453) {
                            var3 = -0.00061882124;
                        } else {
                            var3 = 0.05841325;
                        }
                    }
                } else {
                    if (input[6] >= 0.25369453) {
                        if (input[1] >= 1.5132843) {
                            var3 = 0.00043476667;
                        } else {
                            var3 = 0.09364237;
                        }
                    } else {
                        var3 = 0.13807671;
                    }
                }
            }
        } else {
            if (input[1] >= 1.5738089) {
                if (input[7] >= 3.2275014) {
                    var3 = 0.03428691;
                } else {
                    var3 = -0.029253481;
                }
            } else {
                if (input[2] >= 5.632401) {
                    if (input[3] >= 2.28) {
                        var3 = 0.073213235;
                    } else {
                        if (input[1] >= 1.1430843) {
                            var3 = -0.052378062;
                        } else {
                            var3 = -0.011228293;
                        }
                    }
                } else {
                    if (input[3] >= 3.579555) {
                        if (input[7] >= 2.7763786) {
                            var3 = 0.018635362;
                        } else {
                            var3 = -0.019675836;
                        }
                    } else {
                        if (input[1] >= 1.3479668) {
                            var3 = -0.023157137;
                        } else {
                            var3 = -0.046710063;
                        }
                    }
                }
            }
        }
    }
    double var4;
    if (input[5] >= 63.783398) {
        if (input[6] >= 0.43653485) {
            if (input[4] >= 516.8655) {
                if (input[4] >= 1419.1306) {
                    var4 = 0.06594666;
                } else {
                    var4 = 0.009040454;
                }
            } else {
                if (input[5] >= 93.7256) {
                    var4 = 0.20697884;
                } else {
                    var4 = 0.047344517;
                }
            }
        } else {
            if (input[3] >= 1.5090373) {
                if (input[7] >= 4.2714334) {
                    if (input[3] >= 4.916082) {
                        if (input[7] >= 4.9465384) {
                            var4 = 0.12593555;
                        } else {
                            var4 = 0.043784097;
                        }
                    } else {
                        if (input[6] >= 0.09800902) {
                            var4 = 0.04706735;
                        } else {
                            var4 = 0.01564682;
                        }
                    }
                } else {
                    if (input[3] >= 2.9294345) {
                        if (input[6] >= 0.25005513) {
                            var4 = -0.0073388307;
                        } else {
                            var4 = -0.027954081;
                        }
                    } else {
                        if (input[1] >= 1.2364192) {
                            var4 = 0.018724596;
                        } else {
                            var4 = 0.0646848;
                        }
                    }
                }
            } else {
                if (input[7] >= 2.0882587) {
                    var4 = 0.1080765;
                } else {
                    var4 = 0.026002185;
                }
            }
        }
    } else {
        if (input[3] >= 5.17) {
            if (input[2] >= 3.5882795) {
                var4 = 0.014853294;
            } else {
                var4 = 0.16842562;
            }
        } else {
            if (input[1] >= 1.5252026) {
                if (input[7] >= 2.5295024) {
                    if (input[4] >= 337.66382) {
                        if (input[3] >= 1.8491951) {
                            var4 = 0.040091805;
                        } else {
                            var4 = -0.009908948;
                        }
                    } else {
                        if (input[4] >= 278.42752) {
                            var4 = 0.100891866;
                        } else {
                            var4 = 0.019551422;
                        }
                    }
                } else {
                    if (input[3] >= 0.90523446) {
                        if (input[6] >= 0.4582431) {
                            var4 = 0.045131065;
                        } else {
                            var4 = -0.02046866;
                        }
                    } else {
                        var4 = 0.058803346;
                    }
                }
            } else {
                if (input[6] >= 0.33958766) {
                    if (input[3] >= 1.8073012) {
                        if (input[7] >= 2.0867708) {
                            var4 = 0.033322334;
                        } else {
                            var4 = -0.0074026017;
                        }
                    } else {
                        if (input[5] >= 40.039577) {
                            var4 = 0.006911526;
                        } else {
                            var4 = 0.08514818;
                        }
                    }
                } else {
                    if (input[7] >= 4.8917613) {
                        if (input[6] >= 0.100009546) {
                            var4 = 0.02754411;
                        } else {
                            var4 = -0.0111924615;
                        }
                    } else {
                        if (input[2] >= 2.992052) {
                            var4 = -0.03734898;
                        } else {
                            var4 = -0.008561577;
                        }
                    }
                }
            }
        }
    }
    double var5;
    if (input[5] >= 63.783398) {
        if (input[6] >= 0.43653485) {
            if (input[7] >= 1.5078664) {
                if (input[2] >= 6.8515186) {
                    var5 = 0.14325249;
                } else {
                    if (input[7] >= 1.9377398) {
                        var5 = 0.06231868;
                    } else {
                        var5 = 0.019026747;
                    }
                }
            } else {
                if (input[7] >= 0.9842941) {
                    var5 = -0.031073863;
                } else {
                    var5 = 0.056085285;
                }
            }
        } else {
            if (input[3] >= 1.5090373) {
                if (input[7] >= 4.5795918) {
                    if (input[3] >= 4.916082) {
                        var5 = 0.08132572;
                    } else {
                        if (input[6] >= 0.09800902) {
                            var5 = 0.03472665;
                        } else {
                            var5 = 0.011516746;
                        }
                    }
                } else {
                    if (input[1] >= 1.2170918) {
                        if (input[3] >= 2.4432826) {
                            var5 = -0.00096835376;
                        } else {
                            var5 = 0.021812031;
                        }
                    } else {
                        var5 = 0.05402535;
                    }
                }
            } else {
                if (input[7] >= 2.5404456) {
                    var5 = 0.095027775;
                } else {
                    var5 = 0.030416174;
                }
            }
        }
    } else {
        if (input[3] >= 5.17) {
            if (input[2] >= 3.5882795) {
                var5 = 0.011862878;
            } else {
                var5 = 0.11491262;
            }
        } else {
            if (input[2] >= 7.0324526) {
                if (input[1] >= 1.2753694) {
                    var5 = -0.06423209;
                } else {
                    if (input[1] >= 1.1287837) {
                        var5 = -0.01146896;
                    } else {
                        var5 = -0.045031093;
                    }
                }
            } else {
                if (input[7] >= 2.099267) {
                    if (input[6] >= 0.07139528) {
                        if (input[4] >= 335.1645) {
                            var5 = 0.0089672245;
                        } else {
                            var5 = 0.055114668;
                        }
                    } else {
                        if (input[2] >= 6.6833334) {
                            var5 = 0.062422182;
                        } else {
                            var5 = -0.01158925;
                        }
                    }
                } else {
                    if (input[6] >= 0.5807111) {
                        if (input[2] >= 3.6212306) {
                            var5 = -0.009360992;
                        } else {
                            var5 = 0.031921104;
                        }
                    } else {
                        if (input[2] >= 1.711642) {
                            var5 = -0.024797572;
                        } else {
                            var5 = 0.015068027;
                        }
                    }
                }
            }
        }
    }
    double var6;
    if (input[5] >= 66.48279) {
        if (input[1] >= 1.1740787) {
            if (input[3] >= 1.5090373) {
                if (input[7] >= 5.0623646) {
                    if (input[0] >= 1.0) {
                        var6 = -0.007672542;
                    } else {
                        if (input[2] >= 5.0596676) {
                            var6 = 0.06955229;
                        } else {
                            var6 = 0.020515315;
                        }
                    }
                } else {
                    if (input[6] >= 0.503134) {
                        if (input[7] >= 1.9377398) {
                            var6 = 0.05450677;
                        } else {
                            var6 = 0.015848042;
                        }
                    } else {
                        if (input[3] >= 2.9294345) {
                            var6 = -0.0016971038;
                        } else {
                            var6 = 0.014041311;
                        }
                    }
                }
            } else {
                if (input[7] >= 2.5404456) {
                    var6 = 0.0724269;
                } else {
                    var6 = 0.023291094;
                }
            }
        } else {
            if (input[5] >= 95.875046) {
                var6 = 0.117688164;
            } else {
                var6 = 0.016671615;
            }
        }
    } else {
        if (input[1] >= 1.7832719) {
            if (input[2] >= 2.1875) {
                if (input[7] >= 6.048481) {
                    if (input[1] >= 2.2895951) {
                        var6 = 0.029314687;
                    } else {
                        var6 = 0.08715254;
                    }
                } else {
                    if (input[4] >= 396.54382) {
                        if (input[5] >= 31.018345) {
                            var6 = 0.057813212;
                        } else {
                            var6 = 0.0083749015;
                        }
                    } else {
                        if (input[6] >= 0.028476987) {
                            var6 = -0.019143222;
                        } else {
                            var6 = 0.013970467;
                        }
                    }
                }
            } else {
                var6 = 0.10919743;
            }
        } else {
            if (input[3] >= 5.17) {
                if (input[2] >= 3.5882795) {
                    var6 = 0.009480195;
                } else {
                    var6 = 0.0825389;
                }
            } else {
                if (input[6] >= 0.5473667) {
                    if (input[7] >= 2.6434522) {
                        var6 = 0.07610654;
                    } else {
                        if (input[5] >= 22.294197) {
                            var6 = 0.023418901;
                        } else {
                            var6 = -0.0127516445;
                        }
                    }
                } else {
                    if (input[3] >= 1.2130725) {
                        if (input[3] >= 1.2683868) {
                            var6 = -0.0035783497;
                        } else {
                            var6 = 0.04518768;
                        }
                    } else {
                        if (input[4] >= 669.7364) {
                            var6 = -0.007540697;
                        } else {
                            var6 = -0.033229224;
                        }
                    }
                }
            }
        }
    }
    double var7;
    if (input[0] >= 1.0) {
        if (input[7] >= 2.2228281) {
            if (input[2] >= 2.2672567) {
                if (input[7] >= 5.0769) {
                    if (input[4] >= 312.91855) {
                        if (input[5] >= 24.89352) {
                            var7 = -0.0014080154;
                        } else {
                            var7 = 0.03518602;
                        }
                    } else {
                        var7 = 0.044944793;
                    }
                } else {
                    if (input[7] >= 2.4396858) {
                        if (input[5] >= 32.941425) {
                            var7 = -0.007030133;
                        } else {
                            var7 = -0.028790914;
                        }
                    } else {
                        var7 = 0.03923671;
                    }
                }
            } else {
                if (input[6] >= 0.12172824) {
                    var7 = 0.08211626;
                } else {
                    if (input[6] >= 0.02869214) {
                        var7 = -0.009791158;
                    } else {
                        var7 = 0.019429237;
                    }
                }
            }
        } else {
            if (input[6] >= 0.54978776) {
                var7 = 0.0064470097;
            } else {
                if (input[5] >= 36.84041) {
                    var7 = -0.038153738;
                } else {
                    if (input[7] >= 1.6030607) {
                        if (input[7] >= 1.7002264) {
                            var7 = -0.015575544;
                        } else {
                            var7 = 0.0065047387;
                        }
                    } else {
                        var7 = -0.030508269;
                    }
                }
            }
        }
    } else {
        if (input[5] >= 37.984642) {
            if (input[4] >= 325.11536) {
                if (input[4] >= 381.40073) {
                    if (input[4] >= 782.94617) {
                        if (input[1] >= 1.3225274) {
                            var7 = -0.0010198635;
                        } else {
                            var7 = 0.023217194;
                        }
                    } else {
                        if (input[6] >= 0.10090863) {
                            var7 = 0.03348328;
                        } else {
                            var7 = 0.0025687818;
                        }
                    }
                } else {
                    if (input[7] >= 1.9514842) {
                        if (input[4] >= 361.9058) {
                            var7 = -0.004914685;
                        } else {
                            var7 = 0.027893037;
                        }
                    } else {
                        var7 = -0.023705494;
                    }
                }
            } else {
                var7 = 0.07014149;
            }
        } else {
            if (input[4] >= 366.1247) {
                if (input[5] >= 24.773895) {
                    if (input[4] >= 405.34448) {
                        if (input[5] >= 25.958242) {
                            var7 = 0.0117169805;
                        } else {
                            var7 = 0.04983559;
                        }
                    } else {
                        if (input[6] >= 0.21492341) {
                            var7 = 0.0054259407;
                        } else {
                            var7 = -0.026552767;
                        }
                    }
                } else {
                    if (input[2] >= 2.9798303) {
                        var7 = -0.053937774;
                    } else {
                        if (input[3] >= 2.1037655) {
                            var7 = 0.009464322;
                        } else {
                            var7 = -0.021787671;
                        }
                    }
                }
            } else {
                if (input[6] >= 0.0959142) {
                    if (input[5] >= 33.541267) {
                        var7 = -0.013854819;
                    } else {
                        if (input[3] >= 2.7448583) {
                            var7 = -0.009930496;
                        } else {
                            var7 = 0.036248364;
                        }
                    }
                } else {
                    if (input[2] >= 3.669623) {
                        if (input[3] >= 1.4176465) {
                            var7 = -0.024616027;
                        } else {
                            var7 = -0.0043107434;
                        }
                    } else {
                        if (input[7] >= 2.3637838) {
                            var7 = 0.03890655;
                        } else {
                            var7 = -0.009281963;
                        }
                    }
                }
            }
        }
    }
    double var8;
    if (input[5] >= 38.7899) {
        if (input[0] >= 1.0) {
            if (input[2] >= 5.436307) {
                if (input[2] >= 7.1625) {
                    if (input[1] >= 1.203547) {
                        var8 = -0.030101074;
                    } else {
                        if (input[6] >= 0.26145262) {
                            var8 = 0.013676495;
                        } else {
                            var8 = -0.0023466542;
                        }
                    }
                } else {
                    if (input[7] >= 6.397785) {
                        var8 = 0.0002469947;
                    } else {
                        var8 = 0.022956748;
                    }
                }
            } else {
                if (input[5] >= 39.289772) {
                    var8 = -0.025889082;
                } else {
                    var8 = 0.014450341;
                }
            }
        } else {
            if (input[4] >= 325.11536) {
                if (input[7] >= 2.114867) {
                    if (input[6] >= 0.10104343) {
                        if (input[3] >= 3.4309895) {
                            var8 = 0.0071629724;
                        } else {
                            var8 = 0.031206202;
                        }
                    } else {
                        if (input[1] >= 1.345987) {
                            var8 = 0.011149095;
                        } else {
                            var8 = -0.0061967247;
                        }
                    }
                } else {
                    if (input[5] >= 100.62381) {
                        if (input[1] >= 1.1902354) {
                            var8 = 0.003010425;
                        } else {
                            var8 = 0.080880195;
                        }
                    } else {
                        if (input[2] >= 6.8515186) {
                            var8 = -0.04222928;
                        } else {
                            var8 = 0.00048892054;
                        }
                    }
                }
            } else {
                if (input[1] >= 1.2454139) {
                    var8 = 0.06774388;
                } else {
                    var8 = 0.0242107;
                }
            }
        }
    } else {
        if (input[7] >= 5.951395) {
            if (input[6] >= 0.100116745) {
                if (input[2] >= 3.874286) {
                    if (input[7] >= 7.0674534) {
                        if (input[1] >= 1.2753694) {
                            var8 = -0.029360233;
                        } else {
                            var8 = 0.0032938824;
                        }
                    } else {
                        if (input[4] >= 574.85034) {
                            var8 = -0.009480823;
                        } else {
                            var8 = 0.031336203;
                        }
                    }
                } else {
                    if (input[5] >= 33.441296) {
                        var8 = 0.083157174;
                    } else {
                        if (input[7] >= 6.8052654) {
                            var8 = 0.037927523;
                        } else {
                            var8 = 0.0019027448;
                        }
                    }
                }
            } else {
                if (input[1] >= 1.1329384) {
                    if (input[4] >= 432.38745) {
                        if (input[4] >= 440.98523) {
                            var8 = -0.0061381147;
                        } else {
                            var8 = 0.010590349;
                        }
                    } else {
                        if (input[1] >= 1.3555871) {
                            var8 = -0.0021038696;
                        } else {
                            var8 = -0.018164309;
                        }
                    }
                } else {
                    if (input[5] >= 33.291336) {
                        var8 = 0.026539424;
                    } else {
                        var8 = 0.002148186;
                    }
                }
            }
        } else {
            if (input[2] >= 2.3353999) {
                if (input[4] >= 298.4223) {
                    if (input[1] >= 1.5521021) {
                        if (input[6] >= 0.10523127) {
                            var8 = -0.0059903357;
                        } else {
                            var8 = 0.020667536;
                        }
                    } else {
                        if (input[1] >= 1.4731668) {
                            var8 = -0.04135756;
                        } else {
                            var8 = -0.014434069;
                        }
                    }
                } else {
                    if (input[5] >= 32.246605) {
                        if (input[7] >= 2.5297785) {
                            var8 = 0.02510081;
                        } else {
                            var8 = 0.105672844;
                        }
                    } else {
                        if (input[5] >= 25.598335) {
                            var8 = -0.020968255;
                        } else {
                            var8 = 0.035305366;
                        }
                    }
                }
            } else {
                if (input[6] >= 0.12253029) {
                    if (input[5] >= 19.998241) {
                        if (input[7] >= 1.3688554) {
                            var8 = 0.03922707;
                        } else {
                            var8 = 0.0038466805;
                        }
                    } else {
                        if (input[1] >= 1.3524307) {
                            var8 = -0.0037967432;
                        } else {
                            var8 = -0.021254487;
                        }
                    }
                } else {
                    if (input[7] >= 2.0176105) {
                        if (input[4] >= 364.40515) {
                            var8 = 0.010701337;
                        } else {
                            var8 = -0.009697369;
                        }
                    } else {
                        if (input[2] >= 1.8744876) {
                            var8 = -0.0061988547;
                        } else {
                            var8 = -0.027946351;
                        }
                    }
                }
            }
        }
    }
    double var9;
    if (input[0] >= 1.0) {
        if (input[5] >= 22.547579) {
            if (input[5] >= 26.54309) {
                if (input[3] >= 4.49) {
                    if (input[2] >= 3.5882795) {
                        var9 = 0.00848128;
                    } else {
                        var9 = 0.0227483;
                    }
                } else {
                    if (input[2] >= 3.7541118) {
                        if (input[4] >= 271.42932) {
                            var9 = -0.001127388;
                        } else {
                            var9 = 0.040988307;
                        }
                    } else {
                        if (input[4] >= 335.91257) {
                            var9 = -0.013148056;
                        } else {
                            var9 = -0.0030022238;
                        }
                    }
                }
            } else {
                if (input[2] >= 2.1875) {
                    if (input[7] >= 6.768846) {
                        var9 = 0.018302213;
                    } else {
                        if (input[2] >= 6.25) {
                            var9 = -0.0009801453;
                        } else {
                            var9 = -0.011024334;
                        }
                    }
                } else {
                    var9 = 0.05480937;
                }
            }
        } else {
            var9 = -0.039319206;
        }
    } else {
        if (input[7] >= 2.393001) {
            if (input[6] >= 0.6993315) {
                var9 = 0.08338274;
            } else {
                if (input[7] >= 2.503971) {
                    if (input[5] >= 24.643585) {
                        if (input[6] >= 0.07486886) {
                            var9 = 0.0131494915;
                        } else {
                            var9 = -0.0054273508;
                        }
                    } else {
                        if (input[3] >= 1.8669285) {
                            var9 = -0.031343665;
                        } else {
                            var9 = 0.009505786;
                        }
                    }
                } else {
                    if (input[1] >= 1.3850198) {
                        var9 = 0.009394646;
                    } else {
                        var9 = 0.094750874;
                    }
                }
            }
        } else {
            if (input[2] >= 1.711642) {
                if (input[5] >= 100.62381) {
                    if (input[1] >= 1.1902354) {
                        if (input[7] >= 1.3523839) {
                            var9 = 0.010844258;
                        } else {
                            var9 = -0.00701639;
                        }
                    } else {
                        var9 = 0.062572226;
                    }
                } else {
                    if (input[7] >= 1.7410455) {
                        if (input[7] >= 1.9739312) {
                            var9 = -0.005004907;
                        } else {
                            var9 = 0.018528555;
                        }
                    } else {
                        if (input[2] >= 3.5983884) {
                            var9 = -0.02640467;
                        } else {
                            var9 = -0.0038327584;
                        }
                    }
                }
            } else {
                if (input[1] >= 1.3854094) {
                    if (input[1] >= 1.4392713) {
                        var9 = 0.018140981;
                    } else {
                        var9 = -0.0021480857;
                    }
                } else {
                    var9 = 0.047080014;
                }
            }
        }
    }
    double var10;
    if (input[6] >= 0.44874093) {
        if (input[7] >= 1.5302222) {
            if (input[2] >= 5.451804) {
                if (input[6] >= 0.48095834) {
                    var10 = 0.029693533;
                } else {
                    var10 = 0.074159086;
                }
            } else {
                if (input[7] >= 3.821371) {
                    var10 = -0.02614247;
                } else {
                    if (input[7] >= 2.6434522) {
                        if (input[1] >= 1.317601) {
                            var10 = 0.013481418;
                        } else {
                            var10 = 0.08068006;
                        }
                    } else {
                        if (input[6] >= 0.5473667) {
                            var10 = 0.010434958;
                        } else {
                            var10 = -0.016496802;
                        }
                    }
                }
            }
        } else {
            if (input[2] >= 3.6212306) {
                if (input[5] >= 86.92737) {
                    var10 = 0.005999338;
                } else {
                    if (input[1] >= 1.1559598) {
                        var10 = -0.033500563;
                    } else {
                        var10 = -0.0022191152;
                    }
                }
            } else {
                if (input[7] >= 0.8516557) {
                    if (input[1] >= 1.4024279) {
                        var10 = 0.017012758;
                    } else {
                        var10 = 0.0075804917;
                    }
                } else {
                    var10 = -0.00025823733;
                }
            }
        }
    } else {
        if (input[7] >= 3.9902596) {
            if (input[7] >= 4.19683) {
                if (input[3] >= 1.923656) {
                    if (input[1] >= 1.3046595) {
                        if (input[2] >= 3.5080965) {
                            var10 = 0.009648463;
                        } else {
                            var10 = 0.029661406;
                        }
                    } else {
                        if (input[1] >= 1.2783694) {
                            var10 = -0.02741612;
                        } else {
                            var10 = 0.0037110497;
                        }
                    }
                } else {
                    if (input[2] >= 3.3524394) {
                        if (input[4] >= 348.4093) {
                            var10 = -0.0073329266;
                        } else {
                            var10 = 0.004213503;
                        }
                    } else {
                        if (input[0] >= 1.0) {
                            var10 = -0.012269459;
                        } else {
                            var10 = -0.034951527;
                        }
                    }
                }
            } else {
                if (input[5] >= 32.156418) {
                    if (input[5] >= 37.990112) {
                        var10 = 0.040502615;
                    } else {
                        if (input[6] >= 0.10703501) {
                            var10 = -0.0046062716;
                        } else {
                            var10 = 0.01180758;
                        }
                    }
                } else {
                    var10 = 0.07300163;
                }
            }
        } else {
            if (input[2] >= 1.7634413) {
                if (input[7] >= 3.6537938) {
                    if (input[2] >= 5.321782) {
                        var10 = -0.041907758;
                    } else {
                        if (input[4] >= 352.40826) {
                            var10 = -0.012053376;
                        } else {
                            var10 = 0.0030856852;
                        }
                    }
                } else {
                    if (input[7] >= 3.545579) {
                        if (input[1] >= 1.2867785) {
                            var10 = 0.0026424197;
                        } else {
                            var10 = 0.048529044;
                        }
                    } else {
                        if (input[3] >= 3.8603163) {
                            var10 = -0.03205957;
                        } else {
                            var10 = -0.0034163762;
                        }
                    }
                }
            } else {
                if (input[7] >= 0.941213) {
                    if (input[6] >= 0.24249853) {
                        if (input[5] >= 19.494926) {
                            var10 = 0.060936116;
                        } else {
                            var10 = 0.00846966;
                        }
                    } else {
                        if (input[7] >= 1.461665) {
                            var10 = 0.0000015445854;
                        } else {
                            var10 = 0.027522478;
                        }
                    }
                } else {
                    var10 = -0.02310726;
                }
            }
        }
    }
    double var11;
    if (input[4] >= 322.41608) {
        if (input[2] >= 5.4255857) {
            if (input[2] >= 7.4737797) {
                if (input[4] >= 384.94806) {
                    if (input[1] >= 1.2783694) {
                        var11 = -0.018634578;
                    } else {
                        if (input[7] >= 3.2491927) {
                            var11 = 0.004748393;
                        } else {
                            var11 = -0.014862134;
                        }
                    }
                } else {
                    if (input[5] >= 35.394234) {
                        var11 = -0.0094877;
                    } else {
                        var11 = -0.036147527;
                    }
                }
            } else {
                if (input[6] >= 0.4551003) {
                    if (input[6] >= 0.48095834) {
                        var11 = 0.0038204887;
                    } else {
                        var11 = 0.047859382;
                    }
                } else {
                    if (input[5] >= 28.292635) {
                        if (input[5] >= 31.341843) {
                            var11 = 0.007901011;
                        } else {
                            var11 = 0.029998064;
                        }
                    } else {
                        if (input[0] >= 1.0) {
                            var11 = -0.001155862;
                        } else {
                            var11 = -0.012996891;
                        }
                    }
                }
            }
        } else {
            if (input[7] >= 8.636581) {
                if (input[1] >= 1.2616762) {
                    var11 = 0.048701324;
                } else {
                    var11 = 0.017365435;
                }
            } else {
                if (input[2] >= 2.3266668) {
                    if (input[2] >= 2.5869658) {
                        if (input[2] >= 2.6648383) {
                            var11 = -0.0033429048;
                        } else {
                            var11 = 0.015440162;
                        }
                    } else {
                        if (input[6] >= 0.15053606) {
                            var11 = -0.02240974;
                        } else {
                            var11 = -0.006820325;
                        }
                    }
                } else {
                    if (input[1] >= 1.8598938) {
                        var11 = 0.036967013;
                    } else {
                        if (input[2] >= 2.2568817) {
                            var11 = 0.017436858;
                        } else {
                            var11 = -0.00082113984;
                        }
                    }
                }
            }
        }
    } else {
        if (input[5] >= 32.246605) {
            if (input[7] >= 2.239407) {
                if (input[7] >= 2.730443) {
                    if (input[7] >= 5.2243223) {
                        var11 = 0.044824693;
                    } else {
                        if (input[2] >= 3.7788486) {
                            var11 = -0.007222841;
                        } else {
                            var11 = 0.009088481;
                        }
                    }
                } else {
                    if (input[0] >= 1.0) {
                        var11 = 0.0153234;
                    } else {
                        var11 = 0.12263227;
                    }
                }
            } else {
                if (input[4] >= 313.91827) {
                    var11 = 0.045436315;
                } else {
                    if (input[1] >= 1.3283827) {
                        var11 = -0.0022350505;
                    } else {
                        var11 = -0.028763736;
                    }
                }
            }
        } else {
            if (input[6] >= 0.1480226) {
                if (input[6] >= 0.22460252) {
                    if (input[3] >= 2.112301) {
                        if (input[6] >= 0.5096467) {
                            var11 = 0.00020226579;
                        } else {
                            var11 = -0.01064519;
                        }
                    } else {
                        if (input[1] >= 1.3577486) {
                            var11 = 0.0008137519;
                        } else {
                            var11 = 0.011614489;
                        }
                    }
                } else {
                    var11 = 0.029023137;
                }
            } else {
                if (input[3] >= 2.6618626) {
                    var11 = 0.0000066027046;
                } else {
                    if (input[5] >= 31.456812) {
                        if (input[2] >= 4.72744) {
                            var11 = -0.008958779;
                        } else {
                            var11 = -0.0033486716;
                        }
                    } else {
                        var11 = -0.0150662605;
                    }
                }
            }
        }
    }
    double var12;
    if (input[5] >= 38.7899) {
        if (input[4] >= 283.1263) {
            if (input[4] >= 325.11536) {
                if (input[5] >= 39.33976) {
                    if (input[1] >= 1.7302551) {
                        if (input[7] >= 2.124465) {
                            var12 = 0.00725439;
                        } else {
                            var12 = 0.0315939;
                        }
                    } else {
                        if (input[6] >= 0.3000515) {
                            var12 = 0.0069433195;
                        } else {
                            var12 = -0.0042508817;
                        }
                    }
                } else {
                    if (input[3] >= 1.7545125) {
                        if (input[0] >= 1.0) {
                            var12 = 0.014569852;
                        } else {
                            var12 = 0.04663553;
                        }
                    } else {
                        var12 = -0.003281648;
                    }
                }
            } else {
                if (input[5] >= 41.439213) {
                    var12 = 0.0085013285;
                } else {
                    var12 = 0.066348895;
                }
            }
        } else {
            var12 = -0.025900533;
        }
    } else {
        if (input[7] >= 5.876274) {
            if (input[1] >= 2.030008) {
                var12 = 0.039301816;
            } else {
                if (input[4] >= 432.38745) {
                    if (input[2] >= 3.8213995) {
                        if (input[7] >= 6.0485163) {
                            var12 = -0.0016377257;
                        } else {
                            var12 = 0.023151984;
                        }
                    } else {
                        if (input[5] >= 34.391045) {
                            var12 = 0.0074387784;
                        } else {
                            var12 = 0.02923294;
                        }
                    }
                } else {
                    if (input[1] >= 1.3555871) {
                        var12 = -0.0026297069;
                    } else {
                        var12 = -0.010525952;
                    }
                }
            }
        } else {
            if (input[5] >= 33.09311) {
                if (input[5] >= 34.1911) {
                    if (input[4] >= 311.99878) {
                        if (input[6] >= 0.108789265) {
                            var12 = -0.0136986105;
                        } else {
                            var12 = -0.000460021;
                        }
                    } else {
                        if (input[2] >= 3.654316) {
                            var12 = 0.026027298;
                        } else {
                            var12 = 0.003665561;
                        }
                    }
                } else {
                    if (input[4] >= 343.4106) {
                        if (input[3] >= 2.1982727) {
                            var12 = -0.009257356;
                        } else {
                            var12 = -0.02399291;
                        }
                    } else {
                        if (input[4] >= 314.41815) {
                            var12 = -0.03746096;
                        } else {
                            var12 = -0.01486589;
                        }
                    }
                }
            } else {
                if (input[4] >= 365.12494) {
                    if (input[1] >= 1.494481) {
                        if (input[6] >= 0.09273021) {
                            var12 = 0.0014351117;
                        } else {
                            var12 = 0.053150993;
                        }
                    } else {
                        if (input[1] >= 1.4098694) {
                            var12 = -0.0161817;
                        } else {
                            var12 = -0.0037764783;
                        }
                    }
                } else {
                    if (input[1] >= 1.1315486) {
                        if (input[5] >= 32.841454) {
                            var12 = 0.03173224;
                        } else {
                            var12 = 0.006510387;
                        }
                    } else {
                        var12 = -0.014781394;
                    }
                }
            }
        }
    }
    double var13;
    if (input[1] >= 2.4968514) {
        var13 = 0.024168387;
    } else {
        if (input[6] >= 0.4551003) {
            if (input[7] >= 1.4903395) {
                if (input[5] >= 71.8313) {
                    if (input[1] >= 1.186641) {
                        var13 = 0.017159484;
                    } else {
                        var13 = 0.05052619;
                    }
                } else {
                    if (input[3] >= 1.5984948) {
                        if (input[4] >= 480.37494) {
                            var13 = 0.00622122;
                        } else {
                            var13 = -0.010305789;
                        }
                    } else {
                        var13 = 0.03129894;
                    }
                }
            } else {
                if (input[2] >= 4.3361707) {
                    var13 = -0.02419618;
                } else {
                    if (input[1] >= 1.2901428) {
                        if (input[4] >= 492.37183) {
                            var13 = -0.0012275755;
                        } else {
                            var13 = 0.012345282;
                        }
                    } else {
                        var13 = -0.003266664;
                    }
                }
            }
        } else {
            if (input[7] >= 6.036128) {
                if (input[6] >= 0.10473949) {
                    if (input[6] >= 0.19974153) {
                        if (input[1] >= 1.2783694) {
                            var13 = -0.020234577;
                        } else {
                            var13 = 0.0023140009;
                        }
                    } else {
                        if (input[5] >= 33.441296) {
                            var13 = 0.04697117;
                        } else {
                            var13 = 0.006659363;
                        }
                    }
                } else {
                    if (input[2] >= 3.6034718) {
                        if (input[2] >= 4.5235996) {
                            var13 = -0.0037844295;
                        } else {
                            var13 = 0.008715116;
                        }
                    } else {
                        if (input[6] >= 0.09800902) {
                            var13 = 0.0024334071;
                        } else {
                            var13 = -0.015416215;
                        }
                    }
                }
            } else {
                if (input[2] >= 2.089394) {
                    if (input[2] >= 4.306872) {
                        if (input[2] >= 4.4631987) {
                            var13 = 0.0005829786;
                        } else {
                            var13 = 0.041058283;
                        }
                    } else {
                        if (input[1] >= 1.3032393) {
                            var13 = -0.0016459354;
                        } else {
                            var13 = -0.00837584;
                        }
                    }
                } else {
                    if (input[7] >= 2.4745293) {
                        if (input[1] >= 1.3024461) {
                            var13 = 0.032836653;
                        } else {
                            var13 = 0.0032418508;
                        }
                    } else {
                        if (input[4] >= 357.90686) {
                            var13 = -0.004459499;
                        } else {
                            var13 = 0.014815189;
                        }
                    }
                }
            }
        }
    }
    double var14;
    if (input[4] >= 338.9118) {
        if (input[4] >= 351.64404) {
            if (input[1] >= 1.494481) {
                if (input[7] >= 0.80010164) {
                    if (input[5] >= 27.478947) {
                        if (input[5] >= 31.956472) {
                            var14 = 0.006905711;
                        } else {
                            var14 = -0.0031024702;
                        }
                    } else {
                        if (input[4] >= 390.89825) {
                            var14 = 0.024202408;
                        } else {
                            var14 = 0.0050055007;
                        }
                    }
                } else {
                    var14 = -0.022632334;
                }
            } else {
                if (input[7] >= 3.0395927) {
                    if (input[2] >= 2.2323308) {
                        if (input[3] >= 1.9401035) {
                            var14 = 0.002716644;
                        } else {
                            var14 = -0.0058461605;
                        }
                    } else {
                        if (input[1] >= 1.2676077) {
                            var14 = 0.033066537;
                        } else {
                            var14 = 0.007030863;
                        }
                    }
                } else {
                    if (input[2] >= 6.8515186) {
                        if (input[7] >= 1.5078664) {
                            var14 = 0.022778586;
                        } else {
                            var14 = -0.0038137012;
                        }
                    } else {
                        if (input[4] >= 369.90372) {
                            var14 = -0.008598436;
                        } else {
                            var14 = 0.0047137933;
                        }
                    }
                }
            }
        } else {
            if (input[5] >= 25.97324) {
                if (input[5] >= 34.341064) {
                    if (input[3] >= 2.4391947) {
                        var14 = -0.0029238877;
                    } else {
                        var14 = -0.010772067;
                    }
                } else {
                    if (input[7] >= 6.250407) {
                        var14 = -0.005168199;
                    } else {
                        var14 = -0.018323917;
                    }
                }
            } else {
                var14 = 0.016568022;
            }
        }
    } else {
        if (input[4] >= 256.6332) {
            if (input[5] >= 39.864624) {
                if (input[5] >= 41.739136) {
                    var14 = 0.00018813893;
                } else {
                    var14 = 0.043836582;
                }
            } else {
                if (input[7] >= 6.1780014) {
                    var14 = 0.040050242;
                } else {
                    if (input[7] >= 5.616613) {
                        var14 = -0.020973219;
                    } else {
                        if (input[4] >= 295.4231) {
                            var14 = 0.0015107105;
                        } else {
                            var14 = 0.011135366;
                        }
                    }
                }
            }
        } else {
            if (input[7] >= 3.0053267) {
                var14 = 0.0058149444;
            } else {
                if (input[5] >= 30.077171) {
                    var14 = -0.024137432;
                } else {
                    var14 = -0.00945488;
                }
            }
        }
    }
    double var15;
    if (input[2] >= 7.059985) {
        if (input[4] >= 483.87405) {
            if (input[7] >= 5.190745) {
                if (input[7] >= 6.229947) {
                    if (input[6] >= 0.22533923) {
                        var15 = 0.0030505962;
                    } else {
                        var15 = -0.00072444195;
                    }
                } else {
                    var15 = -0.008309302;
                }
            } else {
                if (input[4] >= 702.31714) {
                    var15 = 0.0032412384;
                } else {
                    var15 = 0.010887593;
                }
            }
        } else {
            if (input[7] >= 4.6487503) {
                if (input[5] >= 84.32805) {
                    var15 = 0.01483566;
                } else {
                    if (input[7] >= 8.706518) {
                        var15 = -0.015174295;
                    } else {
                        var15 = -0.002794932;
                    }
                }
            } else {
                if (input[7] >= 1.5340883) {
                    if (input[3] >= 1.4888246) {
                        var15 = -0.026728824;
                    } else {
                        var15 = -0.0068491725;
                    }
                } else {
                    var15 = 0.0016868815;
                }
            }
        }
    } else {
        if (input[2] >= 6.6833334) {
            if (input[7] >= 1.5078664) {
                if (input[1] >= 1.1902354) {
                    var15 = 0.011533301;
                } else {
                    var15 = 0.03480876;
                }
            } else {
                var15 = -0.010310031;
            }
        } else {
            if (input[6] >= 0.59193724) {
                if (input[1] >= 1.3749697) {
                    if (input[7] >= 2.0171092) {
                        if (input[6] >= 0.80054724) {
                            var15 = 0.001955498;
                        } else {
                            var15 = -0.013421276;
                        }
                    } else {
                        if (input[5] >= 27.292896) {
                            var15 = 0.011873969;
                        } else {
                            var15 = -0.0015066935;
                        }
                    }
                } else {
                    if (input[7] >= 1.2334347) {
                        if (input[4] >= 300.9217) {
                            var15 = 0.02763601;
                        } else {
                            var15 = 0.0022147854;
                        }
                    } else {
                        var15 = -0.00231256;
                    }
                }
            } else {
                if (input[6] >= 0.40350506) {
                    if (input[2] >= 5.4255857) {
                        var15 = 0.006419609;
                    } else {
                        if (input[6] >= 0.5473667) {
                            var15 = -0.00068900443;
                        } else {
                            var15 = -0.017473254;
                        }
                    }
                } else {
                    if (input[4] >= 472.82343) {
                        if (input[7] >= 5.966041) {
                            var15 = 0.0050585982;
                        } else {
                            var15 = -0.0056351465;
                        }
                    } else {
                        if (input[5] >= 84.47801) {
                            var15 = -0.018076964;
                        } else {
                            var15 = 0.0022870589;
                        }
                    }
                }
            }
        }
    }
    double var16;
    if (input[0] >= 1.0) {
        if (input[4] >= 432.38745) {
            if (input[4] >= 442.8847) {
                if (input[4] >= 536.36035) {
                    if (input[7] >= 5.4999785) {
                        if (input[1] >= 1.2266855) {
                            var16 = 0.004406391;
                        } else {
                            var16 = -0.002997368;
                        }
                    } else {
                        if (input[1] >= 1.1114236) {
                            var16 = 0.008720467;
                        } else {
                            var16 = 0.0029335981;
                        }
                    }
                } else {
                    if (input[7] >= 4.9743013) {
                        var16 = -0.009930822;
                    } else {
                        var16 = -0.0030107864;
                    }
                }
            } else {
                if (input[5] >= 34.091125) {
                    if (input[1] >= 1.1937186) {
                        var16 = 0.0046906094;
                    } else {
                        var16 = 0.022689564;
                    }
                } else {
                    if (input[2] >= 4.6864758) {
                        if (input[7] >= 5.838853) {
                            var16 = -0.003019754;
                        } else {
                            var16 = 0.0049579944;
                        }
                    } else {
                        var16 = 0.006818305;
                    }
                }
            }
        } else {
            if (input[4] >= 338.9118) {
                if (input[6] >= 0.16746277) {
                    if (input[3] >= 2.87) {
                        if (input[4] >= 369.90372) {
                            var16 = -0.011150635;
                        } else {
                            var16 = 0.0009932959;
                        }
                    } else {
                        if (input[4] >= 368.904) {
                            var16 = -0.026392082;
                        } else {
                            var16 = -0.009058935;
                        }
                    }
                } else {
                    if (input[1] >= 1.3024461) {
                        if (input[5] >= 31.441814) {
                            var16 = -0.0040344982;
                        } else {
                            var16 = 0.018592056;
                        }
                    } else {
                        if (input[5] >= 37.268745) {
                            var16 = -0.00082282565;
                        } else {
                            var16 = -0.009701642;
                        }
                    }
                }
            } else {
                if (input[6] >= 0.24337515) {
                    if (input[6] >= 0.37923282) {
                        if (input[5] >= 34.74096) {
                            var16 = 0.0046579833;
                        } else {
                            var16 = -0.0024490668;
                        }
                    } else {
                        var16 = 0.020156149;
                    }
                } else {
                    if (input[1] >= 1.1526814) {
                        if (input[2] >= 3.654316) {
                            var16 = 0.015410216;
                        } else {
                            var16 = -0.00043516202;
                        }
                    } else {
                        if (input[7] >= 3.1391754) {
                            var16 = -0.016542332;
                        } else {
                            var16 = -0.0028641606;
                        }
                    }
                }
            }
        }
    } else {
        if (input[4] >= 574.85034) {
            if (input[7] >= 1.9501731) {
                if (input[1] >= 1.4045699) {
                    if (input[6] >= 0.4058966) {
                        var16 = -0.009376958;
                    } else {
                        var16 = -0.02396165;
                    }
                } else {
                    if (input[7] >= 2.7775958) {
                        if (input[4] >= 1043.2285) {
                            var16 = 0.011614859;
                        } else {
                            var16 = -0.0022365102;
                        }
                    } else {
                        var16 = -0.009450186;
                    }
                }
            } else {
                if (input[3] >= 2.1469402) {
                    var16 = 0.03698666;
                } else {
                    if (input[1] >= 1.5134766) {
                        var16 = -0.018791182;
                    } else {
                        var16 = 0.003364952;
                    }
                }
            }
        } else {
            if (input[6] >= 0.09793991) {
                if (input[7] >= 7.0397177) {
                    var16 = 0.026419627;
                } else {
                    if (input[6] >= 0.09920248) {
                        if (input[6] >= 0.18638149) {
                            var16 = 0.004952525;
                        } else {
                            var16 = -0.001740218;
                        }
                    } else {
                        var16 = 0.026179459;
                    }
                }
            } else {
                if (input[6] >= 0.09290072) {
                    var16 = -0.030719213;
                } else {
                    if (input[6] >= 0.08943008) {
                        var16 = 0.027307553;
                    } else {
                        if (input[2] >= 2.5915084) {
                            var16 = -0.004582228;
                        } else {
                            var16 = 0.006845066;
                        }
                    }
                }
            }
        }
    }
    double var17;
    if (input[1] >= 2.4968514) {
        var17 = 0.017409448;
    } else {
        if (input[4] >= 256.6332) {
            if (input[4] >= 322.41608) {
                if (input[5] >= 14.341267) {
                    if (input[2] >= 1.7634413) {
                        if (input[4] >= 428.88837) {
                            var17 = 0.0011768482;
                        } else {
                            var17 = -0.002214019;
                        }
                    } else {
                        if (input[5] >= 27.917732) {
                            var17 = -0.002977892;
                        } else {
                            var17 = 0.013933939;
                        }
                    }
                } else {
                    var17 = -0.010933874;
                }
            } else {
                if (input[5] >= 32.84645) {
                    if (input[7] >= 2.0679622) {
                        if (input[7] >= 2.730443) {
                            var17 = 0.0075032064;
                        } else {
                            var17 = 0.05716123;
                        }
                    } else {
                        if (input[2] >= 2.2204914) {
                            var17 = -0.008295576;
                        } else {
                            var17 = 0.0038970823;
                        }
                    }
                } else {
                    if (input[6] >= 0.1480226) {
                        if (input[6] >= 0.37428284) {
                            var17 = -0.0022147854;
                        } else {
                            var17 = 0.01426069;
                        }
                    } else {
                        if (input[5] >= 31.046917) {
                            var17 = -0.009809279;
                        } else {
                            var17 = -0.0034541336;
                        }
                    }
                }
            }
        } else {
            if (input[7] >= 3.0053267) {
                var17 = 0.0013550771;
            } else {
                if (input[3] >= 1.4339823) {
                    var17 = -0.021547643;
                } else {
                    var17 = -0.0063512186;
                }
            }
        }
    }
    double var18;
    if (input[2] >= 7.059985) {
        if (input[4] >= 483.87405) {
            if (input[7] >= 5.190745) {
                if (input[7] >= 6.229947) {
                    if (input[6] >= 0.22533923) {
                        var18 = 0.0020641293;
                    } else {
                        var18 = -0.00015182176;
                    }
                } else {
                    var18 = -0.0055852905;
                }
            } else {
                if (input[0] >= 1.0) {
                    var18 = 0.0072021214;
                } else {
                    var18 = 0.0016041138;
                }
            }
        } else {
            if (input[7] >= 4.6487503) {
                if (input[5] >= 84.32805) {
                    var18 = 0.010225809;
                } else {
                    if (input[5] >= 37.590218) {
                        if (input[7] >= 8.706518) {
                            var18 = -0.013981273;
                        } else {
                            var18 = -0.0052893125;
                        }
                    } else {
                        var18 = -0.0007236938;
                    }
                }
            } else {
                if (input[7] >= 1.5340883) {
                    if (input[1] >= 1.5090948) {
                        var18 = -0.0037688839;
                    } else {
                        if (input[7] >= 2.748384) {
                            var18 = -0.020186562;
                        } else {
                            var18 = -0.0072844825;
                        }
                    }
                } else {
                    var18 = 0.0013794556;
                }
            }
        }
    } else {
        if (input[2] >= 6.6833334) {
            if (input[7] >= 1.5078664) {
                if (input[7] >= 1.9982162) {
                    var18 = 0.024625776;
                } else {
                    var18 = 0.0073371422;
                }
            } else {
                var18 = -0.009370359;
            }
        } else {
            if (input[1] >= 2.4968514) {
                var18 = 0.01347372;
            } else {
                if (input[7] >= 6.016073) {
                    if (input[7] >= 6.2370777) {
                        if (input[3] >= 3.295877) {
                            var18 = 0.008917223;
                        } else {
                            var18 = -0.0011314454;
                        }
                    } else {
                        if (input[4] >= 574.85034) {
                            var18 = -0.0011541971;
                        } else {
                            var18 = 0.032273214;
                        }
                    }
                } else {
                    if (input[7] >= 5.861354) {
                        var18 = -0.017676791;
                    } else {
                        if (input[3] >= 1.6017305) {
                            var18 = -0.000914334;
                        } else {
                            var18 = 0.0029131707;
                        }
                    }
                }
            }
        }
    }
    double var19;
    if (input[5] >= 22.514828) {
        if (input[5] >= 23.193962) {
            if (input[7] >= 2.2228281) {
                if (input[7] >= 2.239079) {
                    if (input[7] >= 2.7115276) {
                        if (input[7] >= 2.7763786) {
                            var19 = 0.00086969044;
                        } else {
                            var19 = -0.017397031;
                        }
                    } else {
                        if (input[1] >= 1.6017444) {
                            var19 = -0.013827255;
                        } else {
                            var19 = 0.014830534;
                        }
                    }
                } else {
                    var19 = 0.032148484;
                }
            } else {
                if (input[7] >= 2.124465) {
                    if (input[3] >= 1.6512834) {
                        var19 = -0.00056378986;
                    } else {
                        var19 = -0.06774168;
                    }
                } else {
                    if (input[7] >= 2.0902286) {
                        var19 = 0.047780227;
                    } else {
                        if (input[6] >= 0.59193724) {
                            var19 = 0.0065631443;
                        } else {
                            var19 = -0.0031743562;
                        }
                    }
                }
            }
        } else {
            var19 = 0.017173989;
        }
    } else {
        if (input[7] >= 2.1391606) {
            if (input[4] >= 541.27356) {
                var19 = 0.0017730807;
            } else {
                if (input[7] >= 2.8536682) {
                    var19 = -0.0048493096;
                } else {
                    if (input[7] >= 2.3238754) {
                        var19 = -0.020689774;
                    } else {
                        var19 = -0.007723135;
                    }
                }
            }
        } else {
            if (input[1] >= 1.5134766) {
                var19 = -0.016204124;
            } else {
                if (input[6] >= 0.36659664) {
                    if (input[6] >= 0.79996634) {
                        var19 = -0.0021173658;
                    } else {
                        if (input[5] >= 21.659363) {
                            var19 = -0.0036211647;
                        } else {
                            var19 = -0.010040991;
                        }
                    }
                } else {
                    if (input[1] >= 1.289505) {
                        if (input[1] >= 1.4749669) {
                            var19 = 0.0045696497;
                        } else {
                            var19 = 0.013621899;
                        }
                    } else {
                        if (input[3] >= 1.1105156) {
                            var19 = -0.00266895;
                        } else {
                            var19 = 0.0009400135;
                        }
                    }
                }
            }
        }
    }
    double var20;
    if (input[4] >= 335.1645) {
        if (input[4] >= 351.64404) {
            if (input[1] >= 1.4401261) {
                if (input[7] >= 3.9243379) {
                    if (input[7] >= 4.19683) {
                        if (input[6] >= 0.20299643) {
                            var20 = 0.016402917;
                        } else {
                            var20 = -0.003986586;
                        }
                    } else {
                        var20 = 0.040163845;
                    }
                } else {
                    if (input[7] >= 3.3973985) {
                        if (input[7] >= 3.5008552) {
                            var20 = -0.003423284;
                        } else {
                            var20 = -0.028285107;
                        }
                    } else {
                        if (input[6] >= 0.09717167) {
                            var20 = 0.0040434618;
                        } else {
                            var20 = -0.009619828;
                        }
                    }
                }
            } else {
                if (input[7] >= 6.750642) {
                    if (input[5] >= 85.82766) {
                        var20 = 0.01713205;
                    } else {
                        if (input[2] >= 3.9293356) {
                            var20 = -0.0030051356;
                        } else {
                            var20 = 0.0056944187;
                        }
                    }
                } else {
                    if (input[3] >= 2.532134) {
                        if (input[3] >= 2.9777641) {
                            var20 = -0.002821058;
                        } else {
                            var20 = 0.0049119955;
                        }
                    } else {
                        if (input[1] >= 1.4227426) {
                            var20 = -0.018262526;
                        } else {
                            var20 = -0.003290339;
                        }
                    }
                }
            }
        } else {
            if (input[7] >= 1.5398765) {
                if (input[5] >= 25.97324) {
                    if (input[5] >= 34.341064) {
                        if (input[3] >= 2.4391947) {
                            var20 = -0.0013578277;
                        } else {
                            var20 = -0.005204205;
                        }
                    } else {
                        if (input[1] >= 2.0882785) {
                            var20 = -0.0072959424;
                        } else {
                            var20 = -0.013334589;
                        }
                    }
                } else {
                    var20 = 0.0018437967;
                }
            } else {
                var20 = 0.009924394;
            }
        }
    } else {
        if (input[2] >= 4.866864) {
            if (input[2] >= 6.1308384) {
                var20 = 0.0037692739;
            } else {
                if (input[7] >= 2.4396749) {
                    var20 = -0.016235009;
                } else {
                    var20 = -0.0026995693;
                }
            }
        } else {
            if (input[7] >= 6.1780014) {
                var20 = 0.017832054;
            } else {
                if (input[7] >= 5.6065135) {
                    var20 = -0.018777179;
                } else {
                    if (input[4] >= 256.6332) {
                        if (input[2] >= 2.5403035) {
                            var20 = 0.010519942;
                        } else {
                            var20 = 0.001921372;
                        }
                    } else {
                        if (input[1] >= 1.1436183) {
                            var20 = 0.00018937096;
                        } else {
                            var20 = -0.010202458;
                        }
                    }
                }
            }
        }
    }
    double var21;
    if (input[2] >= 7.059985) {
        if (input[4] >= 483.87405) {
            if (input[7] >= 5.190745) {
                if (input[2] >= 8.8) {
                    var21 = 0.0018605933;
                } else {
                    if (input[6] >= 0.26145262) {
                        var21 = -0.0013753753;
                    } else {
                        var21 = -0.0046055634;
                    }
                }
            } else {
                if (input[0] >= 1.0) {
                    var21 = 0.006150354;
                } else {
                    var21 = 0.00012699848;
                }
            }
        } else {
            if (input[7] >= 6.353791) {
                if (input[5] >= 84.32805) {
                    var21 = 0.012454638;
                } else {
                    if (input[5] >= 37.590218) {
                        var21 = -0.009620655;
                    } else {
                        var21 = -0.0004156562;
                    }
                }
            } else {
                if (input[3] >= 2.5701916) {
                    if (input[4] >= 428.3885) {
                        var21 = -0.0057825074;
                    } else {
                        var21 = -0.015586604;
                    }
                } else {
                    if (input[4] >= 398.44458) {
                        var21 = 0.0025465994;
                    } else {
                        var21 = -0.0061488673;
                    }
                }
            }
        }
    } else {
        if (input[2] >= 5.4255857) {
            if (input[7] >= 4.2714334) {
                if (input[0] >= 1.0) {
                    if (input[7] >= 5.838853) {
                        if (input[6] >= 0.097911224) {
                            var21 = -0.007925007;
                        } else {
                            var21 = 0.0009083937;
                        }
                    } else {
                        var21 = 0.00993512;
                    }
                } else {
                    if (input[7] >= 4.9465384) {
                        var21 = 0.030752463;
                    } else {
                        var21 = 0.006248155;
                    }
                }
            } else {
                if (input[3] >= 4.478693) {
                    if (input[7] >= 3.6477966) {
                        var21 = -0.0372191;
                    } else {
                        var21 = -0.011009342;
                    }
                } else {
                    if (input[7] >= 2.21377) {
                        if (input[5] >= 70.631615) {
                            var21 = 0.030082462;
                        } else {
                            var21 = 0.002501542;
                        }
                    } else {
                        if (input[7] >= 2.124465) {
                            var21 = -0.04702148;
                        } else {
                            var21 = 0.0049194023;
                        }
                    }
                }
            }
        } else {
            if (input[7] >= 7.6848397) {
                if (input[5] >= 34.391045) {
                    if (input[3] >= 2.8595552) {
                        if (input[4] >= 527.0628) {
                            var21 = -0.00020763352;
                        } else {
                            var21 = 0.0069710896;
                        }
                    } else {
                        var21 = -0.0048479377;
                    }
                } else {
                    if (input[3] >= 1.96) {
                        var21 = 0.025872981;
                    } else {
                        var21 = 0.0013886427;
                    }
                }
            } else {
                if (input[7] >= 4.942194) {
                    if (input[7] >= 5.3200407) {
                        if (input[1] >= 1.4440339) {
                            var21 = 0.003643801;
                        } else {
                            var21 = -0.0049532084;
                        }
                    } else {
                        if (input[2] >= 2.4945295) {
                            var21 = -0.0077641266;
                        } else {
                            var21 = -0.032195456;
                        }
                    }
                } else {
                    if (input[7] >= 4.8917613) {
                        var21 = 0.020448484;
                    } else {
                        if (input[5] >= 33.031403) {
                            var21 = -0.0016544337;
                        } else {
                            var21 = 0.0015855968;
                        }
                    }
                }
            }
        }
    }
    double var22;
    if (input[5] >= 22.514828) {
        if (input[5] >= 23.193962) {
            if (input[4] >= 324.49554) {
                if (input[5] >= 29.442337) {
                    if (input[4] >= 403.29034) {
                        if (input[7] >= 3.545579) {
                            var22 = 0.0029654736;
                        } else {
                            var22 = -0.002091946;
                        }
                    } else {
                        if (input[7] >= 2.25597) {
                            var22 = -0.006292363;
                        } else {
                            var22 = 0.00013539298;
                        }
                    }
                } else {
                    if (input[5] >= 29.042439) {
                        var22 = 0.024637815;
                    } else {
                        if (input[6] >= 0.10447899) {
                            var22 = 0.0020708363;
                        } else {
                            var22 = -0.004455587;
                        }
                    }
                }
            } else {
                if (input[0] >= 1.0) {
                    if (input[7] >= 4.951254) {
                        var22 = 0.010995838;
                    } else {
